2.895492911338806152e-01,6.193135678768157959e-02,7.846502214670181274e-02,-5.444949492812156677e-04,-2.298697531223297119e-01,-8.771426230669021606e-02,-1.782628148794174194e-01,4.400091245770454407e-02,-2.457789145410060883e-02,-1.276047378778457642e-01,3.275846838951110840e-01,-1.173849850893020630e-01,-2.355915158987045288e-01,-1.432850062847137451e-01,1.543238162994384766e-01,-3.852319344878196716e-02,-8.879666775465011597e-02,2.649422883987426758e-01,-2.810258977115154266e-02,-1.144813969731330872e-01,-9.156136959791183472e-02,-9.600269049406051636e-02,7.168614119291305542e-02,-1.342536509037017822e-01,2.560788691043853760e-01,-4.879244416952133179e-02,1.842395365238189697e-01,-1.931585073471069336e-01,-2.296819910407066345e-02,1.175084337592124939e-01,1.574708372354507446e-01,2.001554965972900391e-01,8.829353004693984985e-02,3.141529560089111328e-01,-6.202537100762128830e-03,2.962144315242767334e-01,-9.135499596595764160e-02,-7.660734653472900391e-02,2.775933742523193359e-01,-1.848196983337402344e-01,6.176728010177612305e-02,2.265820056200027466e-01,-1.536845862865447998e-01,4.547941684722900391e-02,-7.804429531097412109e-02,6.976098567247390747e-02,-1.097647994756698608e-01,-4.574020579457283020e-02,-6.776414811611175537e-02,2.232751399278640747e-01,1.397273391485214233e-01,2.231559455394744873e-01,-1.084844991564750671e-01,2.206772565841674805e-01,-1.885586604475975037e-02,3.328979015350341797e-02,4.130508378148078918e-02,-9.573358297348022461e-02,2.688170373439788818e-01,-2.079804837703704834e-01,6.292441487312316895e-02,-7.437979429960250854e-02,-2.677414119243621826e-01,3.581708073616027832e-01
3.046379089355468750e-01,-1.571724265813827515e-01,1.239430159330368042e-01,9.301323443651199341e-02,-2.810429930686950684e-01,-1.861292272806167603e-01,3.049567937850952148e-01,2.149063497781753540e-01,3.454490005970001221e-01,3.958555757999420166e-01,1.202000975608825684e-01,-3.013569712638854980e-01,3.018299043178558350e-01,2.910239398479461670e-01,-4.369223862886428833e-02,-1.218236014246940613e-01,3.551996052265167236e-01,-1.161817386746406555e-01,7.661059498786926270e-02,2.119881361722946167e-01,-7.636687159538269043e-02,1.591577827930450439e-01,-3.589255362749099731e-02,-3.893924877047538757e-02,3.589868247509002686e-01,2.708484828472137451e-01,-2.249328792095184326e-01,2.429843880236148834e-02,3.034625947475433350e-01,1.272541284561157227e-01,-6.765972822904586792e-02,9.160044789314270020e-02,1.254908442497253418e-01,3.378818556666374207e-02,-6.614612415432929993e-03,-2.399724349379539490e-02,-2.114143669605255127e-01,-2.022919058799743652e-01,-4.316303133964538574e-02,4.008692502975463867e-01,-1.069842129945755005e-01,-8.735814131796360016e-03,1.969387978315353394e-01,-1.636459678411483765e-01,3.220922350883483887e-01,1.603522598743438721e-01,9.664064645767211914e-02,2.357039451599121094e-01,-2.240862101316452026e-01,2.642252445220947266e-01,1.650339365005493164e-01,1.733590066432952881e-01,-1.192851439118385315e-01,2.252295166254043579e-01,-1.777310520410537720e-01,-1.674250364303588867e-01,-1.118753179907798767e-01,1.140723526477813721e-01,3.665132820606231689e-01,-2.034419327974319458e-01,3.676294684410095215e-01,2.877919673919677734e-01,-1.212929934263229370e-01,1.355968862771987915e-01
-1.801486909389495850e-01,-3.289372026920318604e-01,-1.208630157634615898e-03,6.382960081100463867e-02,9.371966123580932617e-02,4.204847514629364014e-01,-7.250733673572540283e-02,-1.960617601871490479e-01,-2.784641645848751068e-02,-2.051566392183303833e-01,8.074570447206497192e-02,1.746272146701812744e-01,2.096899300813674927e-01,3.549944460391998291e-01,-3.948428668081760406e-03,-1.313350051641464233e-01,2.394026890397071838e-02,-1.864419281482696533e-01,-7.860426604747772217e-02,1.983142495155334473e-01,-6.708991527557373047e-02,1.373016685247421265e-01,3.225255310535430908e-01,2.432234734296798706e-01,4.815521463751792908e-02,3.644221723079681396e-01,-1.798868775367736816e-01,3.115783333778381348e-01,1.435824036598205566e-01,2.245515882968902588e-01,2.060905396938323975e-01,-8.470477163791656494e-02,2.177155315876007080e-01,1.160447970032691956e-01,5.578362196683883667e-02,-4.728475958108901978e-02,-2.967585623264312744e-01,-3.941142559051513672e-02,4.290408920496702194e-03,1.379376500844955444e-01,-1.448607146739959717e-01,-2.613832652568817139e-01,2.039147168397903442e-01,-6.065496802330017090e-02,2.589787840843200684e-01,8.983975648880004883e-02,-2.008246481418609619e-01,-4.607567936182022095e-02,-2.708754539489746094e-01,-1.014944687485694885e-01,2.723668217658996582e-01,-1.574688106775283813e-01,2.941097915172576904e-01,2.329887002706527710e-01,-8.841952681541442871e-02,1.199259459972381592e-01,-9.940929710865020752e-02,-1.551974564790725708e-01,-9.712435305118560791e-02,-1.575843058526515961e-02,-6.011781841516494751e-02,-1.301779299974441528e-01,-8.223302662372589111e-02,1.602728813886642456e-01
3.293141126632690430e-01,3.195438086986541748e-01,1.247769966721534729e-01,-7.159417867660522461e-02,-2.783449292182922363e-01,3.610357642173767090e-01,-8.891569077968597412e-02,-1.322573870420455933e-01,-1.510364413261413574e-01,-2.234318703413009644e-01,9.708599001169204712e-02,1.668067723512649536e-01,6.226670928299427032e-03,-1.888764500617980957e-01,1.448494344949722290e-01,9.205345809459686279e-02,-2.145295590162277222e-02,8.195659518241882324e-02,2.931376397609710693e-01,-1.138764768838882446e-01,-1.235232502222061157e-01,-2.262548357248306274e-01,-3.668705001473426819e-02,-7.734324783086776733e-02,1.876559294760227203e-02,-7.334235310554504395e-02,1.627922207117080688e-01,1.837563216686248779e-01,3.089945390820503235e-02,-1.427768077701330185e-02,1.795799136161804199e-01,2.495849430561065674e-01,2.126557081937789917e-01,-1.632082909345626831e-01,2.718148231506347656e-01,-1.318505555391311646e-01,2.248987704515457153e-01,-2.845300734043121338e-01,-1.260654777288436890e-01,-1.431056410074234009e-01,-1.929282397031784058e-01,-3.490049764513969421e-02,2.484247386455535889e-01,-2.598245441913604736e-01,7.635670900344848633e-02,2.417338341474533081e-01,3.853738307952880859e-04,1.290303766727447510e-01,1.472155600786209106e-01,-5.163693800568580627e-02,-1.306872665882110596e-01,1.159421727061271667e-01,2.461107820272445679e-01,-1.269520372152328491e-01,-1.252718567848205566e-01,-1.898224353790283203e-01,1.072053760290145874e-01,-2.010187804698944092e-01,5.790461227297782898e-02,2.058362215757369995e-01,-8.102282136678695679e-02,1.484612585045397282e-04,4.584756493568420410e-02,-4.546015709638595581e-02
1.067148074507713318e-01,1.435016989707946777e-01,1.896418333053588867e-01,-1.815084517002105713e-01,-2.218404412269592285e-01,-6.866248697042465210e-02,6.128902360796928406e-02,3.603191971778869629e-01,6.523691862821578979e-02,1.489169299602508545e-01,3.740013837814331055e-01,2.525455653667449951e-01,1.565100103616714478e-01,-1.728991568088531494e-01,1.480134427547454834e-01,2.351563423871994019e-01,3.633473068475723267e-02,2.910484671592712402e-01,1.668985337018966675e-01,4.070131480693817139e-01,1.469289362430572510e-01,1.200425773859024048e-01,-1.025951206684112549e-01,3.088456988334655762e-01,-3.628432005643844604e-02,1.286238580942153931e-01,2.257953882217407227e-01,3.858495876193046570e-02,3.629213571548461914e-01,-5.071923881769180298e-02,3.053933680057525635e-01,1.195821464061737061e-01,-8.182787895202636719e-02,3.824107646942138672e-01,7.282932102680206299e-02,2.296314686536788940e-01,3.992969170212745667e-02,-2.543013095855712891e-01,-1.249095052480697632e-01,2.589888870716094971e-01,-1.426807492971420288e-01,-1.152871027588844299e-01,-5.030256509780883789e-02,-2.225924730300903320e-01,-9.210812300443649292e-02,-1.116180047392845154e-01,-1.345507651567459106e-01,-1.229492723941802979e-01,3.227002322673797607e-01,9.571525454521179199e-02,-2.931601107120513916e-01,-3.075891174376010895e-02,7.143010944128036499e-02,2.449674159288406372e-01,-3.109182044863700867e-02,5.269348621368408203e-03,1.836408376693725586e-01,-1.731351912021636963e-01,1.550598144531250000e-01,2.134700715541839600e-01,1.680013984441757202e-01,1.172312442213296890e-02,-6.634989380836486816e-02,1.503571420907974243e-01
3.862818777561187744e-01,-1.777451038360595703e-01,2.128159999847412109e-01,3.162828981876373291e-01,-2.605774998664855957e-01,-1.068611145019531250e-01,8.224093168973922729e-02,3.742312788963317871e-01,2.114624679088592529e-01,2.091252952814102173e-01,1.754504293203353882e-01,-5.177726969122886658e-02,-1.313857138156890869e-01,-9.196311980485916138e-02,2.384297847747802734e-01,3.887910246849060059e-01,-7.398672867566347122e-03,2.751880288124084473e-01,-9.605952352285385132e-02,2.987176477909088135e-01,-9.123426675796508789e-02,1.551461815834045410e-01,3.233079612255096436e-01,2.245148271322250366e-01,1.358311325311660767e-01,2.071908712387084961e-01,-1.960099190473556519e-01,-2.745533585548400879e-01,1.651797294616699219e-01,1.241701766848564148e-01,-2.368879038840532303e-03,-1.425913274288177490e-01,-1.214646622538566589e-01,3.242040276527404785e-01,3.413061499595642090e-01,-1.602828204631805420e-01,1.939775198698043823e-01,-1.865413784980773926e-01,3.537046909332275391e-01,1.747555732727050781e-01,-7.020217180252075195e-02,2.639755904674530029e-01,-1.150087714195251465e-01,-1.650009155273437500e-01,6.920898705720901489e-02,-2.446640469133853912e-02,2.029893696308135986e-01,-1.603612117469310760e-02,-3.108050525188446045e-01,-2.118400298058986664e-02,7.678253203630447388e-02,2.745964825153350830e-01,-3.909436240792274475e-02,3.845210373401641846e-01,5.942865740507841110e-03,-2.202857136726379395e-01,1.826325207948684692e-01,-1.852400749921798706e-01,7.966684550046920776e-02,4.727341979742050171e-02,-8.583618700504302979e-02,6.513249129056930542e-02,-2.843532264232635498e-01,2.328099012374877930e-01
3.914822340011596680e-01,-2.357393950223922729e-01,-7.250185310840606689e-02,-7.932991534471511841e-02,-1.086790859699249268e-01,-2.370872534811496735e-02,2.313424646854400635e-01,8.434043824672698975e-02,-7.330129295587539673e-02,-1.121154651045799255e-01,3.819256126880645752e-01,1.156084463000297546e-01,-4.475140571594238281e-02,1.788755059242248535e-01,2.680396474897861481e-02,-1.044033691287040710e-01,-8.616578578948974609e-02,-1.499679684638977051e-01,-1.079350337386131287e-01,3.676247596740722656e-01,2.167885452508926392e-01,2.349563837051391602e-01,3.102798759937286377e-01,3.448055088520050049e-01,-1.805867701768875122e-01,-1.438324451446533203e-01,2.080157697200775146e-01,-1.183320283889770508e-01,-8.479547500610351562e-02,5.630381405353546143e-02,1.570154726505279541e-01,3.430043458938598633e-01,3.257170021533966064e-01,3.243995308876037598e-01,3.876355588436126709e-01,1.098917573690414429e-01,-2.071604877710342407e-01,9.260100126266479492e-02,3.404598534107208252e-01,3.775042593479156494e-01,-2.268417328596115112e-01,1.024106889963150024e-01,3.368586301803588867e-01,-2.611973881721496582e-02,3.347452580928802490e-01,8.274894207715988159e-02,-2.439403831958770752e-01,-6.232189014554023743e-02,-1.013281866908073425e-01,5.557002499699592590e-03,-1.355466842651367188e-01,3.146992325782775879e-01,-1.585685275495052338e-02,-1.855514594353735447e-03,1.427050679922103882e-01,2.590424716472625732e-01,3.728755116462707520e-01,-2.931160628795623779e-01,3.580857217311859131e-01,-3.347997739911079407e-02,2.765700817108154297e-01,1.375135630369186401e-01,1.070593297481536865e-01,1.640630140900611877e-02
3.492995351552963257e-02,-1.174383461475372314e-01,-1.173953115940093994e-01,5.772611871361732483e-02,2.378204166889190674e-01,8.715586364269256592e-02,3.410156816244125366e-02,1.493076235055923462e-01,-4.929602891206741333e-02,1.492092609405517578e-01,1.224982663989067078e-01,-2.611095011234283447e-01,2.657846920192241669e-02,-2.238257676362991333e-01,-1.217904239892959595e-01,1.990652233362197876e-01,-1.638580709695816040e-01,1.040831878781318665e-01,-1.520364582538604736e-01,-4.980052635073661804e-02,2.157403081655502319e-01,-9.572213143110275269e-02,2.084153443574905396e-01,7.301314920186996460e-02,9.578888863325119019e-02,3.069533705711364746e-01,-9.156806766986846924e-02,-9.285999462008476257e-03,-1.015209630131721497e-01,1.090628579258918762e-01,1.737348921597003937e-02,1.365486234426498413e-01,-4.698004573583602905e-02,-1.364434659481048584e-01,2.258072048425674438e-01,9.810778498649597168e-02,-3.383739292621612549e-01,-2.629977464675903320e-01,-7.389105111360549927e-02,1.615687459707260132e-01,9.061229228973388672e-02,6.435418967157602310e-03,2.885686755180358887e-01,-2.081823945045471191e-01,-2.076057493686676025e-01,2.306157499551773071e-01,-2.616339623928070068e-01,1.640500724315643311e-01,-1.556793749332427979e-01,1.133004650473594666e-01,1.335485130548477173e-01,-1.066866815090179443e-01,-6.200303137302398682e-02,2.553853392601013184e-01,2.115660756826400757e-01,-2.271175384521484375e-02,-1.633278876543045044e-01,-6.709938496351242065e-02,2.375298440456390381e-01,5.234415829181671143e-02,-5.302418395876884460e-02,-2.081625461578369141e-01,1.194236874580383301e-01,-2.119296193122863770e-01
-6.143820006400346756e-03,1.717784255743026733e-01,3.232119083404541016e-01,-3.112297058105468750e-01,-1.409756392240524292e-01,-1.111257001757621765e-01,-6.199392303824424744e-02,-1.542998552322387695e-01,2.660464048385620117e-01,1.567666530609130859e-01,8.605030179023742676e-02,-2.029923349618911743e-01,1.612109541893005371e-01,-1.647581309080123901e-01,2.729796767234802246e-01,2.510032057762145996e-01,1.845632046461105347e-01,-2.928551472723484039e-02,2.029164880514144897e-01,2.157046198844909668e-01,-1.983534991741180420e-01,-1.930812597274780273e-01,1.874592453241348267e-01,1.717653870582580566e-01,2.934893667697906494e-01,-2.963141910731792450e-02,-1.913330703973770142e-01,-1.117213144898414612e-01,1.662146300077438354e-01,-1.170182228088378906e-02,-1.446299403905868530e-01,2.940938472747802734e-01,-2.897099852561950684e-01,-1.973587572574615479e-01,-1.020740717649459839e-01,1.764875650405883789e-01,-2.001279443502426147e-01,-1.448330432176589966e-01,3.992287218570709229e-01,-5.692091584205627441e-02,-3.029546141624450684e-02,2.751810550689697266e-01,1.245696656405925751e-02,-1.451413035392761230e-01,-7.243961095809936523e-02,-2.166015058755874634e-01,-3.606995940208435059e-02,1.046066135168075562e-01,-6.113830581307411194e-02,-2.029221057891845703e-01,1.156548112630844116e-01,2.665761411190032959e-01,3.070892095565795898e-01,3.367863297462463379e-01,-1.249783188104629517e-01,-2.542905211448669434e-01,3.666428327560424805e-01,1.591721326112747192e-01,-2.019828259944915771e-01,-2.706218659877777100e-01,2.900790870189666748e-01,-3.404326140880584717e-01,-2.178946137428283691e-02,3.103423118591308594e-01
1.577950119972229004e-01
1.790384948253631592e-01
1.631947010755538940e-01
8.480707556009292603e-02
0.000000000000000000e+00
2.152480185031890869e-02
1.175536587834358215e-01
1.707966178655624390e-01
1.886877864599227905e-01
1.883012205362319946e-01
1.562512814998626709e-01
-6.232846528291702271e-02
1.087844073772430420e-01
8.230618387460708618e-02
1.257717460393905640e-01
1.881804317235946655e-01
1.718510836362838745e-01
1.987527161836624146e-01
2.045321911573410034e-01
1.729145199060440063e-01
-2.995003201067447662e-02
1.033169552683830261e-01
1.395834535360336304e-01
1.567465662956237793e-01
1.424100100994110107e-01
1.642539799213409424e-01
8.295895904302597046e-02
-1.129085011780261993e-02
1.627234071493148804e-01
1.471686363220214844e-01
1.039500609040260315e-01
1.626507192850112915e-01
1.202113255858421326e-01
1.618358194828033447e-01
1.598290354013442993e-01
1.788942813873291016e-01
-4.648230597376823425e-02
0.000000000000000000e+00
1.826523393392562866e-01
1.866989731788635254e-01
0.000000000000000000e+00
4.532592743635177612e-02
1.610917001962661743e-01
0.000000000000000000e+00
1.575604975223541260e-01
1.412317007780075073e-01
0.000000000000000000e+00
1.243995800614356995e-01
2.180584818124771118e-01
2.806809730827808380e-02
3.754255175590515137e-02
1.507243216037750244e-01
1.780736148357391357e-01
1.396263539791107178e-01
-2.077544480562210083e-02
0.000000000000000000e+00
1.843155175447463989e-01
-5.025261268019676208e-02
1.380344182252883911e-01
-4.417149350047111511e-02
1.643189638853073120e-01
2.844944596290588379e-02
0.000000000000000000e+00
1.684414744377136230e-01
1.176699548959732056e-01,2.720312401652336121e-02,4.600789025425910950e-02,-5.372885987162590027e-02,-9.236174821853637695e-02,-1.511068493127822876e-01,-2.044062018394470215e-01,-3.320974111557006836e-02,1.245920807123184204e-01,-1.822329461574554443e-01,-5.744428187608718872e-02,-8.935870975255966187e-02,1.542599350214004517e-01,1.396527439355850220e-01,-1.430734843015670776e-01,-2.498369216918945312e-01,-9.408479928970336914e-02,-8.929058909416198730e-03,1.094713211059570312e-01,-1.105887517333030701e-01,-2.472988963127136230e-01,1.384395509958267212e-01,-8.057831227779388428e-02,1.386654227972030640e-01,2.088865339756011963e-01,-9.259591996669769287e-02,1.965160295367240906e-02,-8.067995309829711914e-02,-9.224428795278072357e-04,2.041381783783435822e-02,2.719005346298217773e-01,2.798271477222442627e-01
2.842171490192413330e-01,3.554185926914215088e-01,4.077328145503997803e-01,-2.857377827167510986e-01,6.278754025697708130e-02,-1.725220531225204468e-01,1.516566872596740723e-01,-1.230019927024841309e-01,3.585276007652282715e-01,-6.504703313112258911e-02,-3.606436848640441895e-01,1.141572669148445129e-01,-7.725642621517181396e-02,3.606573939323425293e-01,-1.153177246451377869e-01,-1.233383044600486755e-01,-2.105575799942016602e-02,2.077494561672210693e-02,1.294806152582168579e-01,-2.512458264827728271e-01,-1.618536114692687988e-01,-1.364448480308055878e-02,6.052431091666221619e-02,1.571384668350219727e-01,1.741970330476760864e-01,4.817132838070392609e-03,-2.171016931533813477e-01,-2.815240621566772461e-02,-5.712278187274932861e-02,8.766917139291763306e-02,-6.333889812231063843e-02,9.278322011232376099e-02
1.746166199445724487e-01,2.852443158626556396e-01,1.567137688398361206e-01,6.530632078647613525e-02,3.281552577391266823e-03,-1.809882074594497681e-01,-2.194768786430358887e-01,1.756114363670349121e-01,-3.655199334025382996e-02,-2.082429975271224976e-01,-3.771737962961196899e-02,7.232298702001571655e-02,-2.248664647340774536e-01,2.185099273920059204e-01,-1.177268773317337036e-01,-1.175221949815750122e-01,-1.703931093215942383e-01,8.874221891164779663e-02,2.039476931095123291e-01,-2.254595756530761719e-01,1.682449579238891602e-01,4.022422432899475098e-02,3.392580524086952209e-02,-2.377049475908279419e-01,3.915532231330871582e-01,2.737636305391788483e-02,1.942385733127593994e-01,1.194736957550048828e-01,2.327698655426502228e-02,-1.194748375564813614e-02,-2.113756723701953888e-02,2.214022427797317505e-01
8.484280854463577271e-02,4.176261276006698608e-02,-2.903842926025390625e-02,-2.080893963575363159e-01,-2.286108732223510742e-01,-1.423548907041549683e-01,-1.762781143188476562e-01,1.124471426010131836e-01,3.677509725093841553e-01,-2.479376792907714844e-01,4.052433073520660400e-01,6.789628416299819946e-02,3.082868270576000214e-02,7.160921394824981689e-02,4.463262259960174561e-01,-7.041150331497192383e-02,1.607958078384399414e-01,2.124798111617565155e-02,-1.270317882299423218e-01,3.277890384197235107e-02,9.533399343490600586e-02,-1.174734309315681458e-01,2.842536270618438721e-01,-2.596862614154815674e-01,2.019092291593551636e-01,7.405525445938110352e-02,-1.657576411962509155e-01,5.301260948181152344e-02,5.814544856548309326e-02,2.890408933162689209e-01,9.832922369241714478e-02,-3.329445421695709229e-02
-1.386145353317260742e-01,1.721139550209045410e-01,-1.674212813377380371e-01,-1.214147806167602539e-01,2.493082880973815918e-01,1.298791170120239258e-02,-6.297838687896728516e-02,-2.379109263420104980e-01,1.689775586128234863e-01,-9.887856245040893555e-02,3.332674503326416016e-02,-5.004644393920898438e-02,-1.145209670066833496e-01,-1.424449682235717773e-01,1.844714283943176270e-01,1.218819618225097656e-02,-2.338179349899291992e-01,-2.198992967605590820e-01,1.775128841400146484e-01,-1.037098169326782227e-01,-1.187396049499511719e-01,-1.016461253166198730e-01,-4.966616630554199219e-03,-8.131021261215209961e-02,1.927634477615356445e-01,-2.163549065589904785e-01,-1.637278199195861816e-01,-1.995714306831359863e-01,1.149097681045532227e-01,1.152383685111999512e-01,-1.785939335823059082e-01,5.003446340560913086e-02
-1.905060708522796631e-01,8.032675832509994507e-02,-2.121371775865554810e-01,-2.024653553962707520e-01,-1.935635805130004883e-01,1.612468063831329346e-01,1.146102547645568848e-01,-1.149886846542358398e-02,3.681945800781250000e-02,-1.965458989143371582e-01,-1.722915023565292358e-01,-3.948938548564910889e-01,1.081795468926429749e-01,-3.521234393119812012e-01,-1.836935579776763916e-01,-2.092711925506591797e-01,-6.892645359039306641e-02,-2.351559847593307495e-01,8.060185611248016357e-02,3.244607150554656982e-02,-1.486899256706237793e-01,1.385108232498168945e-01,5.242590233683586121e-02,-9.293049573898315430e-02,7.725847512483596802e-02,7.707747817039489746e-02,-2.061676383018493652e-01,1.611717343330383301e-01,-2.633182704448699951e-01,-2.988332808017730713e-01,-2.385963648557662964e-01,-1.892657727003097534e-01
-1.600055210292339325e-02,1.715820166282355785e-03,4.461806640028953552e-02,6.974664330482482910e-02,1.361314058303833008e-01,-2.209100723266601562e-01,1.082434654235839844e-01,1.580440998077392578e-02,1.130416616797447205e-01,-1.301588267087936401e-01,-5.001661181449890137e-02,3.181384876370429993e-02,1.313707232475280762e-01,1.839723587036132812e-01,-6.231974810361862183e-02,-2.602446079254150391e-02,-1.954998373985290527e-01,2.263962179422378540e-01,9.798073768615722656e-02,2.142910808324813843e-01,-1.677711009979248047e-01,-8.851635456085205078e-02,3.223534524440765381e-01,8.957786858081817627e-02,-1.110833436250686646e-01,1.675921380519866943e-01,-2.609877884387969971e-01,-7.436192035675048828e-02,1.129328683018684387e-01,-8.149687200784683228e-02,1.679160892963409424e-01,2.878473699092864990e-01
3.285315632820129395e-01,9.537013247609138489e-03,3.036923408508300781e-01,-1.482914686203002930e-01,-2.162993699312210083e-01,1.388146877288818359e-01,5.573546886444091797e-02,-1.195082068443298340e-01,3.787101805210113525e-01,-7.509248703718185425e-02,3.467999398708343506e-01,3.294762670993804932e-01,1.307312399148941040e-01,3.927468359470367432e-01,-4.826285876333713531e-03,-1.912739686667919159e-02,-8.432859182357788086e-02,2.232351154088973999e-02,-2.526999115943908691e-01,-2.676276266574859619e-01,2.180522680282592773e-01,7.592459768056869507e-02,3.054157197475433350e-01,-8.927096426486968994e-02,4.905354604125022888e-02,-5.175770074129104614e-02,3.962081670761108398e-02,1.956016421318054199e-01,-9.817951172590255737e-02,3.886230885982513428e-01,1.724548488855361938e-01,1.771673262119293213e-01
-2.577006816864013672e-02,1.389116793870925903e-01,3.587902486324310303e-01,-2.136264443397521973e-01,8.643378317356109619e-02,6.073091551661491394e-02,1.533406972885131836e-01,-8.514916896820068359e-02,-8.922596275806427002e-02,1.223407536745071411e-01,2.221426926553249359e-02,1.470310837030410767e-01,-4.152669012546539307e-02,1.097907777875661850e-02,3.082235157489776611e-01,-9.871917963027954102e-02,-2.098295688629150391e-01,-7.154264301061630249e-02,2.002344727516174316e-01,-1.400581300258636475e-01,-1.453852057456970215e-01,-1.721817702054977417e-01,1.882972121238708496e-01,-1.956613510847091675e-01,3.394645750522613525e-01,-2.159725427627563477e-01,1.037088483572006226e-01,-1.270619630813598633e-01,2.152884304523468018e-01,3.662003576755523682e-01,1.996156126260757446e-01,2.368405163288116455e-01
3.585695624351501465e-01,-8.846563845872879028e-02,1.530617028474807739e-01,8.161826431751251221e-02,-1.395060569047927856e-01,-1.860645860433578491e-01,-1.731297969818115234e-01,-2.142826914787292480e-01,-3.336108848452568054e-02,-4.564200341701507568e-02,1.776942759752273560e-01,1.258175075054168701e-01,-1.024214997887611389e-01,2.930532693862915039e-01,-1.260440796613693237e-01,5.746199190616607666e-02,2.421807050704956055e-01,1.170221641659736633e-01,6.823981553316116333e-02,3.494678810238838196e-02,2.382097244262695312e-01,-1.271766871213912964e-01,-3.009611554443836212e-02,-1.973521113395690918e-01,9.929509460926055908e-02,1.787441372871398926e-01,-1.627113297581672668e-02,7.593369483947753906e-02,2.068863809108734131e-01,-5.421753972768783569e-02,2.742310166358947754e-01,3.386819064617156982e-01
2.960915267467498779e-01,-2.343931235373020172e-02,1.811837404966354370e-02,-2.333348095417022705e-01,-5.806692689657211304e-02,-6.078601256012916565e-02,-8.859282732009887695e-02,-2.301161885261535645e-01,-5.382319539785385132e-02,-2.179063856601715088e-01,1.273024976253509521e-01,2.533946335315704346e-01,-1.422995030879974365e-01,1.317699551582336426e-01,-1.092791780829429626e-01,-8.734011650085449219e-02,7.015705108642578125e-02,3.385954499244689941e-01,-8.586133271455764771e-02,-1.496149599552154541e-01,-1.704329252243041992e-01,-8.691717684268951416e-02,3.924643620848655701e-02,-7.463919371366500854e-02,1.554632633924484253e-01,5.800682306289672852e-02,-3.563411533832550049e-02,-2.031192779541015625e-01,1.528849005699157715e-01,2.340489625930786133e-01,2.852015197277069092e-01,1.082155779004096985e-01
-1.642029732465744019e-01,-2.800779044628143311e-01,-2.467813491821289062e-01,5.380673706531524658e-02,-1.723399758338928223e-01,-1.707101762294769287e-01,-5.105429887771606445e-02,1.953982710838317871e-01,4.000647459179162979e-04,1.324470639228820801e-01,-9.162370115518569946e-02,-1.679408997297286987e-01,1.956709027290344238e-01,-1.382575333118438721e-01,-2.619011998176574707e-01,1.417175382375717163e-01,-8.126556873321533203e-02,-2.905015647411346436e-01,7.083633448928594589e-03,1.746530681848526001e-01,-2.426167726516723633e-01,2.254261970520019531e-01,-2.362633794546127319e-01,1.768009066581726074e-01,1.529621034860610962e-01,1.940973848104476929e-01,1.784205436706542969e-01,3.083294630050659180e-02,-2.414917200803756714e-01,-5.331679247319698334e-03,-2.984058260917663574e-01,-2.736507058143615723e-01
-5.799551680684089661e-02,-1.234383061528205872e-01,1.650724560022354126e-01,-1.953296810388565063e-01,-1.712179332971572876e-01,1.812334805727005005e-01,-1.655258536338806152e-01,-3.171473741531372070e-02,8.116278052330017090e-02,1.610375642776489258e-01,1.098242551088333130e-01,-1.240215674042701721e-01,-4.329354315996170044e-02,-3.721531247720122337e-04,2.699649147689342499e-02,-2.091599851846694946e-01,2.424036860466003418e-01,-1.433255076408386230e-01,-2.279843986034393311e-01,-2.412674576044082642e-01,7.384800910949707031e-02,1.104175969958305359e-01,7.542558759450912476e-02,-2.548894584178924561e-01,5.888308957219123840e-02,-1.557830572128295898e-01,-2.295424342155456543e-01,-1.902866959571838379e-01,1.459661871194839478e-01,2.108569592237472534e-01,1.911018341779708862e-01,1.629380881786346436e-01
-1.626724144443869591e-03,3.613245487213134766e-01,-2.538434043526649475e-02,6.449652463197708130e-02,2.115982174873352051e-01,1.778677999973297119e-01,1.613698601722717285e-01,-1.597697734832763672e-01,8.416197448968887329e-02,-2.655530869960784912e-01,-5.350125022232532501e-03,3.485287353396415710e-02,-1.497066020965576172e-01,2.837398350238800049e-01,3.168238103389739990e-01,4.650235176086425781e-02,3.329473733901977539e-02,3.304730057716369629e-01,-1.377613991498947144e-01,1.664842218160629272e-01,-1.421302556991577148e-02,1.171995997428894043e-01,1.350546628236770630e-01,-3.012490272521972656e-02,-5.748052615672349930e-03,-2.291880846023559570e-01,-3.460800647735595703e-02,-8.758133649826049805e-02,-1.334577947854995728e-01,3.232119083404541016e-01,1.530582904815673828e-01,1.242682188749313354e-01
-6.132104620337486267e-02,-4.834982007741928101e-02,1.161930803209543228e-02,4.398788139224052429e-02,-2.965383464470505714e-03,-9.070406667888164520e-03,2.373303771018981934e-01,-1.190987229347229004e-01,-1.738592050969600677e-02,1.748369485139846802e-01,-3.912213444709777832e-02,2.333663552999496460e-01,1.486868113279342651e-01,1.272812932729721069e-01,1.288404315710067749e-01,-3.909210860729217529e-02,-1.002019047737121582e-01,-1.392228454351425171e-01,-1.253171171993017197e-02,1.326787322759628296e-01,-2.227602601051330566e-01,1.962629556655883789e-01,2.294476032257080078e-01,9.611367434263229370e-02,4.917834699153900146e-02,5.863421782851219177e-02,-2.020425647497177124e-01,-2.015399336814880371e-01,2.148572355508804321e-01,2.292235791683197021e-01,1.968649476766586304e-01,3.418020308017730713e-01
2.651889622211456299e-01,6.361102312803268433e-02,1.635244339704513550e-01,4.500845912843942642e-03,1.100981384515762329e-01,7.809986919164657593e-02,-7.910007238388061523e-02,-2.359884977340698242e-02,7.334663718938827515e-02,1.094583868980407715e-01,-3.729437589645385742e-01,2.655849158763885498e-01,-7.484442740678787231e-02,1.539232432842254639e-01,-5.275052040815353394e-02,1.501696705818176270e-01,-2.964043617248535156e-02,1.627270281314849854e-01,1.112695857882499695e-01,-2.500754892826080322e-01,6.251746416091918945e-02,-1.119290068745613098e-01,-1.120421662926673889e-02,-2.180296778678894043e-01,3.890606462955474854e-01,-1.125343963503837585e-01,-1.731657534837722778e-01,-1.537314653396606445e-01,3.190594539046287537e-02,3.734805881977081299e-01,6.017469614744186401e-02,3.585411310195922852e-01
8.523500710725784302e-02,3.107137084007263184e-01,2.248518019914627075e-01,-1.432196497917175293e-01,-1.551465243101119995e-01,-2.459397315979003906e-01,2.473632097244262695e-01,1.082867980003356934e-01,1.506913751363754272e-01,-4.235626012086868286e-02,1.380321085453033447e-01,-1.787019707262516022e-02,-1.263236999511718750e-01,2.737762331962585449e-01,2.581588923931121826e-01,5.926345661282539368e-02,-8.407133817672729492e-02,1.406232267618179321e-02,1.246973499655723572e-01,2.759068459272384644e-02,-5.494689941406250000e-02,2.258268594741821289e-01,2.664374113082885742e-01,2.190051376819610596e-01,3.300616443157196045e-01,-2.064847946166992188e-01,7.043632864952087402e-02,1.199563145637512207e-01,-2.321609556674957275e-01,9.713046252727508545e-02,2.362616956233978271e-01,3.329159021377563477e-01
3.480950593948364258e-01,3.649605065584182739e-02,9.612911194562911987e-02,1.286466792225837708e-02,1.534053981304168701e-01,1.246146042831242085e-03,3.323298692703247070e-02,8.213216066360473633e-02,-8.505036123096942902e-03,-2.640827000141143799e-01,-1.246045082807540894e-01,-8.890648931264877319e-02,-1.961382031440734863e-01,3.237284719944000244e-01,2.576432824134826660e-01,-9.793968498706817627e-02,-1.354299187660217285e-01,3.579017519950866699e-01,-2.214073240756988525e-01,1.388412564992904663e-01,-2.425220608711242676e-01,-1.161734089255332947e-01,3.879806026816368103e-02,-7.571953535079956055e-02,9.835225343704223633e-02,1.681108027696609497e-02,-1.748444288969039917e-01,2.269867062568664551e-01,1.779346019029617310e-01,6.734502315521240234e-02,-5.251723527908325195e-02,3.374270498752593994e-01
-7.921592891216278076e-02,4.977396130561828613e-02,1.624434888362884521e-01,-1.633175313472747803e-01,-2.427162677049636841e-01,-6.993550807237625122e-02,1.560391187667846680e-01,-1.104888319969177246e-01,-8.603914640843868256e-03,6.061201915144920349e-02,-3.406631946563720703e-01,-5.555300787091255188e-02,4.739598557353019714e-02,1.340303122997283936e-01,2.061998937278985977e-03,1.048391312360763550e-01,-1.052668094635009766e-01,3.751510987058281898e-03,-4.949245229363441467e-02,7.773417019052430987e-05,-2.434331178665161133e-02,-1.906895041465759277e-01,2.619617283344268799e-01,-1.063082814216613770e-01,2.153429239988327026e-01,-1.446111947298049927e-01,-2.090836763381958008e-01,-1.501119136810302734e-02,-1.111866831779479980e-01,1.418723315000534058e-01,9.033124893903732300e-02,1.009516939520835876e-01
1.920285224914550781e-01,2.671264708042144775e-01,2.684661746025085449e-01,-1.242558285593986511e-01,2.334786206483840942e-01,-1.635144650936126709e-01,-1.113346815109252930e-01,-6.408601999282836914e-02,8.817622810602188110e-02,-1.825920343399047852e-01,2.238301187753677368e-01,3.788066804409027100e-01,-9.957722388207912445e-03,1.632007509469985962e-01,1.639372855424880981e-01,7.324198633432388306e-02,-2.450323700904846191e-01,3.813258185982704163e-02,-1.053502503782510757e-02,1.119153052568435669e-01,-1.270550489425659180e-02,-2.617423236370086670e-01,2.201752513647079468e-01,1.117746438831090927e-02,8.568719774484634399e-02,5.454371124505996704e-02,-8.186709135770797729e-02,1.475262641906738281e-02,-1.659850031137466431e-02,3.120667934417724609e-01,-2.834876999258995056e-02,3.769653663039207458e-02
-3.556983917951583862e-02,-1.269285380840301514e-02,-1.512397378683090210e-01,1.577534377574920654e-01,-4.415184259414672852e-02,1.478530466556549072e-01,-1.620348095893859863e-01,-2.444491982460021973e-01,2.201776951551437378e-01,-6.665987521409988403e-02,2.709822058677673340e-01,-1.454329639673233032e-01,-1.905653625726699829e-03,-4.795301333069801331e-02,-1.162088513374328613e-01,-2.219901233911514282e-01,-1.343667507171630859e-03,2.390763722360134125e-02,6.499078869819641113e-02,1.278239786624908447e-01,-1.702225804328918457e-01,4.452200140804052353e-03,3.504504635930061340e-02,-2.139853984117507935e-01,1.161028519272804260e-01,-1.243308465927839279e-02,-1.550640612840652466e-01,1.374957561492919922e-01,-4.170709289610385895e-03,5.507848784327507019e-02,1.882572621107101440e-01,-1.791339814662933350e-01
-3.551384061574935913e-02,7.492239773273468018e-02,9.851258248090744019e-02,-6.479497067630290985e-03,-1.894316673278808594e-01,1.068590506911277771e-01,1.238933801651000977e-01,-7.748347520828247070e-02,2.912129163742065430e-01,-2.468875236809253693e-02,2.977093458175659180e-01,2.253087610006332397e-01,-1.193963661789894104e-01,-1.099655125290155411e-02,2.947519123554229736e-01,-7.495427131652832031e-02,-1.430881023406982422e-01,4.824265837669372559e-02,1.314850002527236938e-01,-1.410648077726364136e-01,-1.824827194213867188e-01,1.727633476257324219e-01,1.108478382229804993e-01,2.017267644405364990e-01,3.775624930858612061e-01,-2.381746023893356323e-01,-1.468370109796524048e-01,7.999694347381591797e-02,2.007102966308593750e-01,-1.678207889199256897e-02,1.376087516546249390e-01,1.819967776536941528e-01
-1.404481828212738037e-01,1.972035020589828491e-01,1.972400099039077759e-01,-1.656317561864852905e-01,-2.013920098543167114e-01,-1.955941319465637207e-01,-3.459906578063964844e-02,-1.180762052536010742e-02,2.607213258743286133e-01,1.409343630075454712e-01,1.903185695409774780e-01,7.682883180677890778e-03,-1.051825881004333496e-01,6.318204104900360107e-02,-1.130456179380416870e-01,2.202672213315963745e-01,-2.046875357627868652e-01,2.906818985939025879e-01,1.669992804527282715e-01,9.093899279832839966e-03,-2.295751571655273438e-01,6.418991088867187500e-02,1.344594359397888184e-01,8.250249922275543213e-02,2.475236058235168457e-01,1.971414387226104736e-01,1.105554476380348206e-01,-2.262650728225708008e-01,2.115999758243560791e-01,5.576279014348983765e-02,-6.030905246734619141e-02,1.455214917659759521e-01
-1.687765866518020630e-02,2.772663831710815430e-01,2.514142990112304688e-01,1.774507462978363037e-01,8.750325441360473633e-02,-1.470377668738365173e-02,-1.642793416976928711e-02,-9.765082597732543945e-02,1.831529289484024048e-01,1.813731156289577484e-02,1.401767227798700333e-02,-3.079163096845149994e-02,1.405201765010133386e-04,5.563676357269287109e-02,1.061022132635116577e-01,1.119016706943511963e-01,2.336471676826477051e-01,1.993243247270584106e-01,8.956993371248245239e-02,-9.003306739032268524e-03,-1.191835999488830566e-01,-2.014194726943969727e-01,2.159439325332641602e-01,-2.571735978126525879e-01,1.062163487076759338e-01,-1.334599256515502930e-01,1.392202079296112061e-01,1.387211680412292480e-01,2.082742378115653992e-02,-5.752591043710708618e-02,2.826394140720367432e-01,1.458503901958465576e-01
-5.695682018995285034e-03,3.425334990024566650e-01,-8.779022097587585449e-02,1.795494854450225830e-01,-2.222497388720512390e-02,2.172139734029769897e-01,-1.945850253105163574e-01,4.178071022033691406e-02,-1.196409612894058228e-01,-2.453180402517318726e-01,1.906380951404571533e-01,2.831202447414398193e-01,2.003314942121505737e-01,7.635949552059173584e-02,-9.091877192258834839e-02,3.385177254676818848e-02,-1.351638436317443848e-01,-1.346512734889984131e-01,-1.605990082025527954e-01,1.340152919292449951e-01,-1.509910225868225098e-01,8.420165628194808960e-02,2.810906469821929932e-01,-1.260539293289184570e-01,2.777656167745590210e-02,-9.509082883596420288e-02,-1.205296143889427185e-01,2.340483665466308594e-02,-2.351037114858627319e-01,-2.654124610126018524e-02,1.187048479914665222e-01,3.617978096008300781e-01
3.157265186309814453e-01,1.828736513853073120e-01,3.459615409374237061e-01,4.176907241344451904e-02,-1.275897920131683350e-01,-1.252946108579635620e-01,1.207839250564575195e-01,-9.384155273437500000e-02,6.985386461019515991e-02,-1.089229620993137360e-02,-1.546462327241897583e-01,-5.801637470722198486e-02,6.968981772661209106e-02,3.431710600852966309e-01,2.535040676593780518e-01,-2.184699922800064087e-01,-8.442044258117675781e-02,2.229697704315185547e-01,1.976946294307708740e-01,2.065462172031402588e-01,-1.915240287780761719e-02,-1.726857423782348633e-01,2.276250869035720825e-01,-1.453699916601181030e-01,1.646032482385635376e-01,-2.317572012543678284e-03,3.945387899875640869e-02,-5.584049224853515625e-02,-1.219095960259437561e-01,-4.061638563871383667e-02,-1.333895027637481689e-01,1.613419950008392334e-01
-6.294491142034530640e-02,3.225671350955963135e-01,2.362366020679473877e-01,-2.122256308794021606e-01,-1.247023269534111023e-01,-7.786840200424194336e-02,-2.150290012359619141e-01,-6.109648942947387695e-02,2.865091562271118164e-01,2.155418246984481812e-01,1.952833682298660278e-01,9.111969172954559326e-02,-2.002595514059066772e-01,-7.637657225131988525e-02,2.641932070255279541e-01,-1.534398794174194336e-01,-2.453290820121765137e-01,9.302630275487899780e-02,2.247190773487091064e-01,1.267932653427124023e-01,2.081979513168334961e-01,2.189661115407943726e-01,1.565333828330039978e-02,7.870653271675109863e-02,2.736989557743072510e-01,-1.346623003482818604e-01,4.101216793060302734e-02,1.794903874397277832e-01,-1.056878715753555298e-01,1.451206058263778687e-01,2.658548355102539062e-01,-4.013289511203765869e-02
-4.362981766462326050e-02,-9.706299006938934326e-02,-1.711620017886161804e-02,4.847350344061851501e-02,8.502362668514251709e-02,-5.998707190155982971e-02,-2.259193658828735352e-01,2.198601365089416504e-01,-2.807900607585906982e-01,-1.947647333145141602e-02,-1.870809495449066162e-01,5.170056596398353577e-02,-9.037106484174728394e-02,-2.924941778182983398e-01,9.931421279907226562e-02,1.354805082082748413e-01,-5.428475141525268555e-02,-2.904193699359893799e-01,1.543583869934082031e-01,-8.544167876243591309e-02,2.051654458045959473e-01,-3.627725318074226379e-02,-1.153680030256509781e-02,7.692892104387283325e-02,-1.227206829935312271e-02,-5.858794599771499634e-02,-6.157664582133293152e-02,-1.374265551567077637e-01,2.612588927149772644e-02,4.568939097225666046e-03,1.557387560606002808e-01,-1.384007781744003296e-01
-1.100958362221717834e-01,1.654650717973709106e-01,1.573364734649658203e-01,9.518039226531982422e-02,2.193426042795181274e-01,1.719504147768020630e-01,-3.692984580993652344e-02,1.417763829231262207e-01,-1.065822243690490723e-01,9.879187680780887604e-03,8.821464329957962036e-02,1.272918730974197388e-01,1.162270829081535339e-01,2.901005744934082031e-01,5.919224768877029419e-02,2.051601558923721313e-01,-1.139106154441833496e-01,-1.173550635576248169e-01,-1.744167208671569824e-01,1.431182920932769775e-01,-1.674352288246154785e-01,-5.385162681341171265e-02,1.190748587250709534e-01,-1.090183779597282410e-01,2.246891409158706665e-01,9.001840837299823761e-03,1.932406127452850342e-01,1.060100197792053223e-01,-2.262723892927169800e-01,5.618806555867195129e-02,1.148725599050521851e-01,8.331444859504699707e-02
-8.241636306047439575e-02,-5.062031093984842300e-03,3.238494992256164551e-01,-1.722859293222427368e-01,1.210658103227615356e-01,1.356298178434371948e-01,1.331883668899536133e-02,-9.588962793350219727e-02,5.958309397101402283e-02,-1.158251091837882996e-01,6.705049425363540649e-02,-8.916703611612319946e-02,-1.149745509028434753e-01,-1.131375730037689209e-01,-4.172639921307563782e-02,-1.953641176223754883e-01,1.253105998039245605e-01,4.045846685767173767e-02,1.516916453838348389e-01,6.845627725124359131e-02,1.643541455268859863e-01,-2.174839973449707031e-01,1.019615009427070618e-01,-4.539076611399650574e-02,9.082022309303283691e-02,-1.335283666849136353e-01,9.474484622478485107e-02,-1.205094456672668457e-01,1.730886846780776978e-02,2.709398269653320312e-01,2.540289461612701416e-01,2.892370522022247314e-01
-1.598829403519630432e-02,2.900410629808902740e-02,-1.623607426881790161e-01,-9.967570006847381592e-02,6.959543377161026001e-02,1.515376418828964233e-01,2.498495578765869141e-02,-8.211493492126464844e-03,3.194132149219512939e-01,-2.185169607400894165e-01,2.707661092281341553e-01,1.544744670391082764e-01,9.845089912414550781e-02,1.849584281444549561e-01,1.919918060302734375e-01,8.496025949716567993e-02,-8.333593606948852539e-02,2.339410036802291870e-01,1.445703804492950439e-01,1.906588673591613770e-01,-4.520958662033081055e-02,-2.101435810327529907e-01,1.027133613824844360e-01,-1.981315910816192627e-01,-1.052919551730155945e-01,1.720055639743804932e-01,-4.690096527338027954e-02,-1.381665468215942383e-02,1.457456201314926147e-01,2.919610738754272461e-01,-7.283051311969757080e-02,2.384609729051589966e-01
1.145350188016891479e-01,-7.407698780298233032e-02,3.140637651085853577e-02,-3.217189013957977295e-02,-1.258614659309387207e-01,3.828723356127738953e-02,-1.583799719810485840e-01,-2.111076116561889648e-01,3.169560134410858154e-01,5.162794888019561768e-02,-1.929536908864974976e-01,-9.115872532129287720e-02,-8.774790912866592407e-02,1.112861931324005127e-02,-7.536510378122329712e-02,1.939144730567932129e-01,1.746333241462707520e-01,1.917926818132400513e-01,-1.804853230714797974e-01,-1.336710304021835327e-01,1.039632558822631836e-01,-1.804362386465072632e-01,3.016279041767120361e-01,2.023075222969055176e-01,1.525479555130004883e-01,7.744217664003372192e-02,-9.570070356130599976e-02,-2.469162344932556152e-01,-1.656866073608398438e-01,8.370701223611831665e-02,1.864312291145324707e-01,1.576229184865951538e-02
5.691887065768241882e-02,-5.152795463800430298e-02,1.412661522626876831e-01,-1.641737222671508789e-01,8.577788621187210083e-02,2.060874700546264648e-01,-1.890516281127929688e-01,-1.796121597290039062e-01,1.699972599744796753e-01,-5.510860309004783630e-02,2.292854636907577515e-01,-1.790473461151123047e-01,-1.922851204872131348e-01,-4.034704063087701797e-03,1.223438084125518799e-01,7.952454686164855957e-02,-1.859992742538452148e-01,2.805545330047607422e-01,2.147189676761627197e-01,3.586616739630699158e-02,-2.248334884643554688e-01,-1.487684547901153564e-01,2.107512652873992920e-01,2.562701702117919922e-02,3.196886181831359863e-01,2.882019430398941040e-02,7.719557732343673706e-02,-2.002643942832946777e-01,-2.884984947741031647e-02,1.877465695142745972e-01,1.130306944251060486e-01,-3.549549728631973267e-02
2.448959648609161377e-01,5.690030753612518311e-02,2.793766856193542480e-01,1.126832365989685059e-01,-1.500568687915802002e-01,4.164442792534828186e-02,-5.789774656295776367e-02,1.533018350601196289e-01,5.739787593483924866e-02,-1.898265331983566284e-01,2.395900040864944458e-01,3.467963039875030518e-01,-2.450407892465591431e-01,8.862139284610748291e-02,2.456869035959243774e-01,-8.379868417978286743e-02,1.870965957641601562e-02,2.133644223213195801e-01,1.115332990884780884e-01,-2.222977727651596069e-01,2.124588489532470703e-01,1.651719510555267334e-01,3.890510201454162598e-01,2.081008851528167725e-01,2.881884574890136719e-01,1.054884269833564758e-01,1.232115775346755981e-01,-1.191295385360717773e-01,-2.110955268144607544e-01,1.793962270021438599e-01,2.658421546220779419e-02,7.209951430559158325e-02
3.277713954448699951e-01,-3.219214826822280884e-02,2.108033746480941772e-01,-1.250015646219253540e-01,7.207158952951431274e-03,1.797055639326572418e-02,1.051867008209228516e-01,-3.009063005447387695e-02,2.647475004196166992e-01,-2.579578757286071777e-02,-2.666530758142471313e-02,2.460301518440246582e-01,-2.221163362264633179e-01,2.658983170986175537e-01,-1.254456490278244019e-01,-1.231032982468605042e-01,4.243606328964233398e-02,-8.512804657220840454e-02,-1.805238127708435059e-01,1.442092657089233398e-01,-2.420762181282043457e-01,-6.634095311164855957e-02,2.646814286708831787e-01,-7.034910470247268677e-02,6.998633593320846558e-02,5.114733055233955383e-02,-1.476039588451385498e-01,-1.491608023643493652e-01,-8.360145241022109985e-02,-9.868282824754714966e-02,-5.340284854173660278e-02,-9.543951600790023804e-02
3.723435997962951660e-01,1.484702676534652710e-01,1.782882064580917358e-01,-1.411525346338748932e-02,-1.906966269016265869e-01,1.944262981414794922e-01,7.411086559295654297e-02,2.301403284072875977e-01,3.591021597385406494e-01,1.587342619895935059e-01,1.144079491496086121e-01,7.423259317874908447e-02,1.780057400465011597e-01,1.726393401622772217e-01,-6.850519031286239624e-02,1.639297902584075928e-01,-7.047009468078613281e-02,2.282522916793823242e-01,-6.568403542041778564e-02,-8.442144095897674561e-02,-1.299669146537780762e-01,1.990368403494358063e-02,4.816082864999771118e-02,-4.225939512252807617e-02,2.364989221096038818e-01,-1.764620095491409302e-01,3.500257804989814758e-02,-1.985013484954833984e-02,-2.591381780803203583e-02,1.368070989847183228e-01,3.541006520390510559e-02,8.805709332227706909e-02
-1.466706842184066772e-01,-1.559556275606155396e-02,-5.690965056419372559e-02,-7.147619873285293579e-02,1.675594747066497803e-01,1.854277215898036957e-02,-8.285850286483764648e-02,1.462826728820800781e-01,-6.913740932941436768e-02,-1.233394443988800049e-01,-2.039111256599426270e-01,-7.624866813421249390e-02,1.933250427246093750e-01,-1.042530834674835205e-01,2.290601581335067749e-01,9.537021815776824951e-02,-8.900344371795654297e-02,-1.505081802606582642e-01,6.022330746054649353e-02,1.901437491178512573e-01,-1.861667633056640625e-01,-1.363196372985839844e-01,-1.936374790966510773e-02,-6.833606958389282227e-02,4.031450301408767700e-02,-2.200453132390975952e-01,1.091576814651489258e-01,-1.473938822746276855e-01,1.534509956836700439e-01,-1.915990859270095825e-01,-3.384576365351676941e-02,-4.841228201985359192e-02
2.429684996604919434e-01,-2.409490942955017090e-01,2.229511737823486328e-01,2.177436947822570801e-01,-2.097622156143188477e-01,1.496788859367370605e-01,-4.661011695861816406e-02,2.355998158454895020e-01,-4.522687196731567383e-02,1.713834404945373535e-01,1.291840076446533203e-01,-2.450198531150817871e-01,2.317399382591247559e-01,1.635416746139526367e-01,-2.652442455291748047e-02,-2.072016596794128418e-01,2.133010625839233398e-01,8.957636356353759766e-02,3.403395414352416992e-02,1.578037142753601074e-01,-2.284100651741027832e-01,-5.277812480926513672e-02,-9.927076101303100586e-02,-1.641405224800109863e-01,1.705858111381530762e-01,-8.722174167633056641e-02,3.187072277069091797e-02,-2.221732735633850098e-01,-1.056888699531555176e-01,-1.452515721321105957e-01,-2.375928759574890137e-01,-8.133947849273681641e-03
5.994223058223724365e-02,-7.217972725629806519e-02,1.733522713184356689e-01,-2.235421687364578247e-01,-8.757388591766357422e-02,1.125471387058496475e-02,-2.306786179542541504e-01,-1.660313010215759277e-01,3.736459612846374512e-01,1.929448843002319336e-01,8.566009253263473511e-02,1.718232929706573486e-01,-6.452540308237075806e-02,3.764228224754333496e-01,-1.740307509899139404e-01,1.860578209161758423e-01,1.194351911544799805e-02,9.212376177310943604e-02,-2.231139242649078369e-01,-1.668918430805206299e-01,2.370307445526123047e-01,1.742464751005172729e-01,-4.657748714089393616e-02,-1.407849490642547607e-01,3.523462712764739990e-01,2.957350574433803558e-02,-8.831416070461273193e-02,-1.140577197074890137e-01,-1.504028886556625366e-01,3.612581789493560791e-01,-1.127269640564918518e-01,2.086639851331710815e-01
3.720831871032714844e-01,8.752646297216415405e-02,-9.649801254272460938e-02,1.103081926703453064e-01,-1.674476265907287598e-01,-1.705001741647720337e-01,4.495680332183837891e-03,-2.029483914375305176e-01,1.199238467961549759e-02,2.096621543169021606e-01,-6.649427860975265503e-02,2.299382686614990234e-01,-1.491397917270660400e-01,3.268103897571563721e-01,2.209731936454772949e-01,7.904456555843353271e-02,1.127198934555053711e-01,2.214647643268108368e-02,-6.902550160884857178e-02,4.255715757608413696e-02,1.190676093101501465e-01,-5.689113587141036987e-02,-7.350309193134307861e-02,2.304098904132843018e-01,3.715280592441558838e-01,-2.530029118061065674e-01,-2.668378055095672607e-01,-9.079051017761230469e-02,-9.691775776445865631e-03,-4.792089015245437622e-02,-7.202136516571044922e-02,4.357675835490226746e-02
-1.848225593566894531e-01,-4.753941297531127930e-02,-2.273213863372802734e-01,1.224502325057983398e-01,-2.435821294784545898e-01,1.747155189514160156e-02,-1.972763538360595703e-01,-2.300720810890197754e-01,-8.414310216903686523e-02,-1.795403361320495605e-01,-2.160878777503967285e-01,1.988428831100463867e-01,-2.280157208442687988e-01,1.038109660148620605e-01,-1.933884620666503906e-02,1.896501779556274414e-01,9.055912494659423828e-02,1.343492865562438965e-01,-1.290236711502075195e-01,-9.236168861389160156e-02,6.450778245925903320e-02,7.349413633346557617e-02,-8.654475212097167969e-03,1.797940731048583984e-01,8.075368404388427734e-02,1.868885755538940430e-01,-1.804192662239074707e-01,4.907304048538208008e-02,1.154727339744567871e-01,-9.930682182312011719e-02,2.373442649841308594e-01,-7.055640220642089844e-03
-1.210449561476707458e-01,1.011925339698791504e-01,1.699390560388565063e-01,2.805958688259124756e-02,3.345937654376029968e-02,1.963128298521041870e-01,1.207172870635986328e-02,-1.900334358215332031e-01,2.960441401228308678e-03,5.949716642498970032e-02,9.559009969234466553e-02,3.617193102836608887e-01,-4.869236424565315247e-02,9.618846327066421509e-02,-1.557267010211944580e-01,-3.825971484184265137e-02,-3.556829690933227539e-02,-6.930571049451828003e-02,-2.578360773622989655e-02,1.317759901285171509e-01,3.557932376861572266e-02,-8.594010025262832642e-02,1.227165609598159790e-01,1.312318444252014160e-01,-1.583810299634933472e-01,-9.740799665451049805e-02,-9.435770660638809204e-02,9.803205728530883789e-02,-2.244493067264556885e-01,2.509355843067169189e-01,-3.525908291339874268e-02,-8.568552881479263306e-02
8.342574536800384521e-02,3.118455708026885986e-01,1.499848812818527222e-01,-4.471260681748390198e-02,5.722608417272567749e-02,-2.146406024694442749e-01,-4.332566261291503906e-02,2.406801581382751465e-01,1.793278753757476807e-01,2.277527302503585815e-01,2.438803017139434814e-01,2.520644664764404297e-01,-2.388653308153152466e-01,1.678276658058166504e-01,2.305037081241607666e-01,-1.141033247113227844e-01,1.739771962165832520e-01,-7.895633578300476074e-02,-8.805098384618759155e-02,8.393695950508117676e-02,2.842962741851806641e-02,-5.545236635953187943e-03,3.059729337692260742e-01,-1.145131140947341919e-01,3.641199469566345215e-01,-1.555607616901397705e-01,-4.623753949999809265e-02,1.108484864234924316e-01,-1.814798265695571899e-01,-1.064287684857845306e-02,3.111018538475036621e-01,-3.383149951696395874e-02
8.933830261230468750e-02,-6.274241209030151367e-02,3.126311302185058594e-02,2.387285828590393066e-01,-2.175276279449462891e-01,-5.243182182312011719e-02,2.041462063789367676e-01,-3.590202331542968750e-02,9.537822008132934570e-02,2.462477684020996094e-01,2.102063894271850586e-01,-2.714616060256958008e-02,-2.612268924713134766e-02,-9.993672370910644531e-02,1.577157378196716309e-01,-1.356036663055419922e-01,3.751397132873535156e-02,-1.580867171287536621e-01,-1.390946507453918457e-01,-6.303066015243530273e-02,-1.043768525123596191e-01,1.372299194335937500e-01,-1.040746569633483887e-01,1.870942115783691406e-02,1.368407607078552246e-01,-1.963756084442138672e-01,7.394576072692871094e-02,1.365479230880737305e-01,-2.048735618591308594e-01,-1.407657265663146973e-01,-1.930374503135681152e-01,8.085924386978149414e-02
-2.791958628222346306e-03,2.761473357677459717e-01,5.641276016831398010e-02,7.633478939533233643e-02,1.216734200716018677e-01,7.082875072956085205e-02,8.589202165603637695e-02,1.285218000411987305e-01,8.805127814412117004e-03,1.594711691141128540e-01,2.385734319686889648e-01,1.352694034576416016e-01,4.304120782762765884e-03,1.701885610818862915e-01,-7.229436188936233521e-02,-1.475039124488830566e-01,6.441324949264526367e-02,-2.970027364790439606e-02,-2.181989848613739014e-01,8.533067256212234497e-02,2.391223311424255371e-01,-1.582559347152709961e-01,3.150939941406250000e-01,-5.324344336986541748e-02,1.353219151496887207e-01,-2.260708212852478027e-01,2.231115549802780151e-01,-2.039325833320617676e-01,-6.974643468856811523e-02,2.075825035572052002e-01,9.919044375419616699e-02,-1.024860423058271408e-02
1.741563975811004639e-01,1.186831817030906677e-01,2.056688070297241211e-01,1.054400354623794556e-01,-1.426378637552261353e-01,5.263315141201019287e-02,-2.286262512207031250e-01,-1.448404192924499512e-01,3.301370143890380859e-01,-1.569016873836517334e-01,1.851886659860610962e-01,-1.532808691263198853e-01,1.401064991950988770e-01,-1.029052510857582092e-01,1.990150213241577148e-01,-9.838128089904785156e-02,5.780822038650512695e-02,-7.633216679096221924e-02,-2.019577026367187500e-01,-2.428564578294754028e-01,-6.903189420700073242e-02,1.504088342189788818e-01,3.448226153850555420e-01,1.753006279468536377e-01,2.520870566368103027e-01,-1.070578321814537048e-01,1.356493979692459106e-01,-1.370584964752197266e-01,2.118697315454483032e-01,-1.306312829256057739e-01,2.804490327835083008e-01,3.438980504870414734e-02
1.674700975418090820e-01,-3.220403194427490234e-02,2.286160588264465332e-01,-9.183460474014282227e-02,1.761559844017028809e-01,-1.538298726081848145e-01,-2.590483427047729492e-02,-7.534366846084594727e-02,-2.137259840965270996e-01,1.616131663322448730e-01,2.276620864868164062e-01,-7.510149478912353516e-02,1.916875839233398438e-01,8.202499151229858398e-02,1.292191147804260254e-01,2.174477577209472656e-01,-2.017322182655334473e-01,-1.647795438766479492e-01,-1.234711408615112305e-01,-5.183804035186767578e-02,2.915257215499877930e-02,3.928005695343017578e-03,-2.124845981597900391e-03,1.341348886489868164e-02,1.879214048385620117e-01,1.037580966949462891e-01,-5.146276950836181641e-02,1.768928766250610352e-02,1.269778609275817871e-01,-3.629356622695922852e-02,2.125273942947387695e-01,-9.299796819686889648e-02
2.990841493010520935e-02,3.359405994415283203e-01,-1.346801221370697021e-01,-3.221745043992996216e-02,-7.544944435358047485e-02,1.825355738401412964e-01,-1.253148913383483887e-01,1.271278858184814453e-01,2.543881535530090332e-01,-1.039348635822534561e-02,-2.175968885421752930e-01,2.547541260719299316e-01,1.662694215774536133e-01,4.175115376710891724e-02,1.470851302146911621e-01,-5.849108472466468811e-02,9.088516235351562500e-02,5.375841259956359863e-02,-1.336065232753753662e-01,1.251916885375976562e-01,1.031458973884582520e-01,-1.701710522174835205e-01,3.624330759048461914e-01,-6.761441379785537720e-02,8.624654263257980347e-02,8.388829231262207031e-02,-8.802612125873565674e-02,-1.319381594657897949e-01,1.227421611547470093e-01,1.520677804946899414e-01,2.780134379863739014e-01,-1.629000529646873474e-02
1.916546672582626343e-01,8.335505612194538116e-03,4.470097124576568604e-01,4.039847105741500854e-02,-4.204060416668653488e-03,2.165591269731521606e-01,2.395966053009033203e-01,2.110940217971801758e-01,4.740698337554931641e-01,-9.375810623168945312e-05,1.962132155895233154e-01,-3.822506219148635864e-02,5.391537025570869446e-02,1.483514159917831421e-01,-4.936034232378005981e-02,-4.938266426324844360e-02,7.402735948562622070e-02,2.922884821891784668e-01,-3.831428661942481995e-02,-2.002015709877014160e-01,-2.367336153984069824e-01,-1.668376773595809937e-01,1.656917482614517212e-01,9.521132707595825195e-02,4.548077583312988281e-01,1.368980854749679565e-01,1.175913214683532715e-01,-1.109951138496398926e-01,5.179806053638458252e-02,2.498566508293151855e-01,1.285013109445571899e-01,4.496192932128906250e-01
1.271921843290328979e-01,-7.162807881832122803e-02,-6.783125549554824829e-02,-9.141337871551513672e-02,-1.484857499599456787e-01,1.543587595224380493e-01,-2.428879141807556152e-01,-7.801520824432373047e-02,1.446567475795745850e-01,-6.630820035934448242e-02,-8.708850294351577759e-02,-1.017150357365608215e-01,-1.643370240926742554e-01,1.194871515035629272e-01,-5.148725584149360657e-03,-2.552224509418010712e-02,1.653653979301452637e-01,3.220860362052917480e-01,-1.531380116939544678e-01,-1.726903021335601807e-01,-2.050276994705200195e-01,4.232963174581527710e-02,1.363582164049148560e-01,-1.366410702466964722e-01,2.019040137529373169e-01,-2.099069803953170776e-01,1.292093191295862198e-02,-1.584748625755310059e-01,2.101637423038482666e-01,1.397925615310668945e-01,-8.023582398891448975e-02,-1.467263549566268921e-01
1.933581531047821045e-01,3.481204435229301453e-02,2.044584155082702637e-01,6.930147111415863037e-02,-9.270130097866058350e-02,-8.486123755574226379e-03,-2.411108016967773438e-01,-2.124691009521484375e-01,-5.323513969779014587e-02,1.450473517179489136e-01,1.344112455844879150e-01,6.505893170833587646e-02,1.396490484476089478e-01,-1.894660294055938721e-02,1.736963540315628052e-01,1.213046684861183167e-01,-1.289156079292297363e-01,1.079645678400993347e-01,1.044565066695213318e-01,1.266417056322097778e-01,1.711496114730834961e-01,1.675185561180114746e-01,3.404529020190238953e-02,1.232101246714591980e-01,1.228892952203750610e-01,1.428127568215131760e-02,2.329423278570175171e-01,-2.667587995529174805e-02,1.484219431877136230e-01,4.472688585519790649e-02,2.652268707752227783e-01,-6.759560853242874146e-02
2.048719227313995361e-01,4.777310788631439209e-02,3.587620258331298828e-01,-1.259938776493072510e-01,-1.709903776645660400e-01,1.110609769821166992e-01,-1.323921084403991699e-01,6.620347499847412109e-03,2.831992506980895996e-01,9.952486492693424225e-03,3.043461441993713379e-01,2.768262028694152832e-01,1.313258111476898193e-01,4.422230273485183716e-02,2.986729741096496582e-01,1.024902611970901489e-01,1.732569932937622070e-02,3.173848688602447510e-01,3.206187626346945763e-03,1.580098718404769897e-01,6.811684370040893555e-02,2.041684687137603760e-01,1.589608006179332733e-02,-1.125444918870925903e-01,1.323547959327697754e-01,6.693405658006668091e-02,4.581965133547782898e-02,-1.615166664123535156e-01,-3.616715595126152039e-02,3.877073153853416443e-02,2.385055273771286011e-01,3.496299088001251221e-01
2.752175629138946533e-01,2.218340337276458740e-01,8.049643039703369141e-02,1.213550642132759094e-01,-1.647576540708541870e-01,-2.528721094131469727e-01,-2.318028211593627930e-01,4.827761650085449219e-02,2.066465616226196289e-01,1.295229494571685791e-01,-2.716981470584869385e-01,9.901601821184158325e-02,-6.738116592168807983e-02,3.688156008720397949e-01,4.926873743534088135e-02,-5.838698893785476685e-02,-5.744761228561401367e-02,7.496111840009689331e-02,-2.711380422115325928e-01,-2.365049868822097778e-01,1.698249578475952148e-02,-1.855766475200653076e-01,3.191238343715667725e-01,-1.047199368476867676e-01,3.119728267192840576e-01,-2.048679292201995850e-01,-2.262501269578933716e-01,-2.372826337814331055e-01,1.856889724731445312e-01,-9.348264336585998535e-02,1.916015595197677612e-01,3.251560032367706299e-01
3.124122023582458496e-01,2.992755472660064697e-01,3.160858750343322754e-01,2.225211262702941895e-01,-1.239016875624656677e-01,7.906085997819900513e-02,1.066863536834716797e-01,-1.937403678894042969e-01,6.625410169363021851e-02,-2.010708451271057129e-01,2.919968068599700928e-01,2.929961681365966797e-02,1.186759769916534424e-01,2.707515656948089600e-01,3.156507909297943115e-01,-1.750619709491729736e-01,4.708260297775268555e-02,3.348445594310760498e-01,7.130113989114761353e-02,-5.611888132989406586e-03,-1.187298893928527832e-01,1.958659589290618896e-01,-3.142219409346580505e-02,1.621933579444885254e-01,-4.688636213541030884e-02,-4.154802765697240829e-03,1.377635635435581207e-02,-1.478776931762695312e-01,-2.403699010610580444e-01,3.529576063156127930e-01,1.354624480009078979e-01,8.864036947488784790e-02
-1.427362766116857529e-02,-2.059676647186279297e-01,-1.637944132089614868e-01,1.646420359611511230e-01,-1.957000494003295898e-01,-5.948705133050680161e-03,-1.553201079368591309e-01,8.827728033065795898e-02,-1.239605844020843506e-01,1.174088716506958008e-01,1.870386153459548950e-01,-7.649593800306320190e-02,1.796275675296783447e-01,-2.257510721683502197e-01,1.149752736091613770e-01,2.378365993499755859e-01,-1.553921699523925781e-01,1.200727149844169617e-01,3.340669348835945129e-02,1.638853400945663452e-01,-3.832983970642089844e-02,-1.692681908607482910e-01,1.739187240600585938e-01,1.597302407026290894e-01,-4.024385288357734680e-02,-7.781755924224853516e-02,-1.007440090179443359e-01,1.606943011283874512e-01,1.080411151051521301e-01,-1.428202986717224121e-01,-1.850885897874832153e-01,1.688416302204132080e-01
5.377995967864990234e-02,-2.038927078247070312e-01,-3.071725368499755859e-02,-6.879866123199462891e-03,1.073481440544128418e-01,5.190044641494750977e-02,1.397210955619812012e-01,-2.344426512718200684e-01,2.293199300765991211e-01,3.767538070678710938e-02,2.035779953002929688e-01,2.042666673660278320e-01,1.757395863533020020e-01,-1.924108266830444336e-01,-1.563183665275573730e-01,-2.347366809844970703e-01,2.411494255065917969e-01,1.118293404579162598e-01,1.744708418846130371e-01,-1.585204601287841797e-01,-8.232182264328002930e-02,-2.477757930755615234e-01,5.558788776397705078e-02,1.696097850799560547e-02,-1.899364590644836426e-01,-1.843396425247192383e-01,4.485809803009033203e-02,1.015455126762390137e-01,1.455529928207397461e-01,-7.875263690948486328e-03,-1.319264769554138184e-01,1.301807761192321777e-01
2.760528922080993652e-01,-9.593416005373001099e-02,-1.729613728821277618e-02,2.039125561714172363e-01,1.276445239782333374e-01,-1.327085793018341064e-01,1.483244895935058594e-01,1.912869811058044434e-01,3.673757612705230713e-01,-5.654982849955558777e-02,1.278169900178909302e-01,1.378386560827493668e-02,1.759119927883148193e-01,2.416177392005920410e-01,-1.288491338491439819e-01,-1.126366183161735535e-01,-1.567595005035400391e-01,-4.891890659928321838e-02,-1.337834894657135010e-01,1.584816128015518188e-01,-1.661571860313415527e-01,-1.345550715923309326e-01,-4.223962873220443726e-02,-1.912478655576705933e-01,3.566046357154846191e-01,1.362479180097579956e-01,-1.242738775908946991e-02,-2.018114924430847168e-01,-7.738364487886428833e-02,2.626248002052307129e-01,2.500590384006500244e-01,1.576938778162002563e-01
1.639051735401153564e-01,-1.851604431867599487e-01,-4.337216541171073914e-02,-9.808705747127532959e-02,-7.028156518936157227e-02,1.368262767791748047e-01,-1.585668325424194336e-01,-1.363916397094726562e-01,-1.280422210693359375e-01,1.334633231163024902e-01,-1.795220226049423218e-01,-3.381076501682400703e-03,1.409156620502471924e-01,-1.502328664064407349e-01,-2.501455843448638916e-01,-4.485154151916503906e-02,2.002741694450378418e-01,-1.362647279165685177e-03,-7.413637638092041016e-02,-1.903419345617294312e-01,9.557610750198364258e-02,2.023768573999404907e-01,-8.245947211980819702e-02,-1.894521713256835938e-02,-1.097320914268493652e-01,2.750008180737495422e-02,2.026700824499130249e-01,2.148750424385070801e-01,2.048285752534866333e-01,1.152078900486230850e-02,-2.087818831205368042e-01,1.120359227061271667e-01
1.352934688329696655e-01,-1.886790432035923004e-02,3.399878442287445068e-01,-1.122875735163688660e-01,2.195604145526885986e-01,-2.156605720520019531e-01,1.840813159942626953e-01,-2.184859514236450195e-01,-1.852424629032611847e-02,2.227471470832824707e-01,-1.684554293751716614e-02,1.206949129700660706e-01,7.766491919755935669e-02,2.476916015148162842e-01,-7.977363467216491699e-02,9.819915890693664551e-02,-6.607043743133544922e-02,-6.988535821437835693e-02,-7.336901873350143433e-02,-1.965274959802627563e-01,1.860358715057373047e-01,-1.875161081552505493e-01,-4.734004661440849304e-02,-2.544408738613128662e-01,3.418899476528167725e-01,-7.238341867923736572e-02,6.919147074222564697e-02,-2.642148733139038086e-02,1.672433018684387207e-01,-3.060600347816944122e-02,2.970910072326660156e-01,3.168899714946746826e-01
-1.729564964771270752e-01,-6.701717525720596313e-02,-3.484936803579330444e-02,-2.315326333045959473e-01,-1.479268521070480347e-01,1.973240450024604797e-02,1.912523508071899414e-01,3.351151943206787109e-03,-1.022997424006462097e-01,-1.373088359832763672e-02,-1.960522234439849854e-01,5.847810208797454834e-02,1.700910478830337524e-01,-6.921794265508651733e-02,6.922117620706558228e-02,-2.011403888463973999e-01,-1.861120462417602539e-01,-2.929468154907226562e-01,2.099701464176177979e-01,1.685901284217834473e-01,6.567227840423583984e-02,-2.274729311466217041e-03,-1.210861504077911377e-01,-1.639257222414016724e-01,-2.508804500102996826e-01,-8.687361329793930054e-02,-1.595258712768554688e-01,-6.342411041259765625e-02,5.587817355990409851e-02,-2.627955973148345947e-01,-1.294892281293869019e-02,1.660275608301162720e-01
3.015998303890228271e-01,2.843189239501953125e-01,1.436346024274826050e-01,1.539039313793182373e-01,4.491916671395301819e-02,2.011984586715698242e-01,-1.822370290756225586e-01,-1.759402751922607422e-01,3.014506995677947998e-01,1.358058899641036987e-01,1.412663161754608154e-01,-5.703726410865783691e-02,-6.118344143033027649e-02,3.211355507373809814e-01,-1.445238590240478516e-01,-2.222403138875961304e-01,4.940271377563476562e-03,6.923254579305648804e-02,-8.262149989604949951e-03,-1.363746374845504761e-01,-6.097298860549926758e-02,-6.421159487217664719e-03,3.953581154346466064e-01,-1.968161016702651978e-01,1.334772258996963501e-01,-1.785348728299140930e-02,-1.056950092315673828e-01,1.575819849967956543e-01,-2.258667200803756714e-01,4.056367278099060059e-01,1.725758612155914307e-01,-2.703376114368438721e-02
-7.889027893543243408e-02,2.897126972675323486e-01,-2.279734704643487930e-03,1.491395831108093262e-01,8.572608977556228638e-02,9.664765000343322754e-02,-1.141190528869628906e-01,2.479467391967773438e-01,3.724354505538940430e-01,1.003652662038803101e-01,2.970626056194305420e-01,1.423472315073013306e-01,2.179921716451644897e-01,-5.807972326874732971e-02,2.263188362121582031e-01,6.339484453201293945e-02,-1.620122194290161133e-01,1.793862432241439819e-01,-4.484696686267852783e-02,-6.009601429104804993e-02,1.447339653968811035e-01,1.879037171602249146e-01,5.851101130247116089e-02,-8.895373344421386719e-02,2.056840658187866211e-01,-1.380310654640197754e-01,-2.304061502218246460e-01,-1.260202527046203613e-01,7.529294490814208984e-02,4.408008754253387451e-01,-6.804698705673217773e-02,2.250439375638961792e-01
1.152288913726806641e-01,-1.409908533096313477e-01,2.434611320495605469e-02,-2.385081648826599121e-01,-2.990072965621948242e-02,-1.230216622352600098e-01,-1.499041914939880371e-01,1.449673771858215332e-01,1.106683611869812012e-01,-8.970791101455688477e-02,1.464992165565490723e-01,1.169789433479309082e-01,3.561359643936157227e-02,2.418736219406127930e-01,9.890383481979370117e-02,2.392944097518920898e-01,-1.406192183494567871e-01,-1.461548805236816406e-01,2.365368604660034180e-01,-1.850491762161254883e-01,1.806364059448242188e-01,-4.888862371444702148e-02,1.063346266746520996e-01,2.594423294067382812e-02,2.407887578010559082e-01,2.154535055160522461e-01,-2.430634498596191406e-01,6.327337026596069336e-02,1.903550624847412109e-01,1.961648464202880859e-03,-1.982820034027099609e-01,-2.352278232574462891e-01
2.397434413433074951e-01,-6.722458451986312866e-02,1.030056476593017578e-01,3.167584072798490524e-03,-2.335447221994400024e-01,6.154077872633934021e-02,6.221050024032592773e-02,-2.579253911972045898e-02,-7.330170273780822754e-02,6.060062721371650696e-02,-9.905669838190078735e-02,2.903990149497985840e-01,1.294478625059127808e-01,3.574892580509185791e-01,2.987474203109741211e-01,4.242778196930885315e-02,-2.342506051063537598e-01,3.662820756435394287e-01,-2.100717425346374512e-01,9.615100920200347900e-02,5.770933628082275391e-02,-9.685715287923812866e-02,2.614576220512390137e-01,-2.020553126931190491e-02,3.576427698135375977e-01,-4.813814163208007812e-02,-4.724830016493797302e-02,-2.336041331291198730e-01,1.465854793787002563e-01,7.988998293876647949e-02,-5.584252625703811646e-02,2.029702067375183105e-01
1.226437166333198547e-01
1.219542026519775391e-01
1.193273141980171204e-01
-2.477660588920116425e-02
-1.155645120888948441e-02
-2.351341396570205688e-02
0.000000000000000000e+00
0.000000000000000000e+00
1.599483340978622437e-01
-1.917797140777111053e-02
9.069103747606277466e-02
1.463013887405395508e-01
-3.973560035228729248e-02
1.202299296855926514e-01
1.067177429795265198e-01
-2.144631557166576385e-02
0.000000000000000000e+00
1.297752410173416138e-01
-2.175627090036869049e-02
-2.958391234278678894e-02
0.000000000000000000e+00
-2.133308909833431244e-02
1.541861891746520996e-01
-1.834276877343654633e-02
1.328929215669631958e-01
-1.334024313837289810e-02
-2.425808832049369812e-02
0.000000000000000000e+00
-3.267942368984222412e-02
1.537389010190963745e-01
1.066187247633934021e-01
1.196250766515731812e-01
2.348462045192718506e-01,3.176197111606597900e-01
4.620604813098907471e-01,2.851109504699707031e-01
2.634771764278411865e-01,2.749905586242675781e-01
-3.584000468254089355e-01,-1.550881266593933105e-01
1.582398712635040283e-01,-1.765971928834915161e-01
5.418631061911582947e-02,-3.641946017742156982e-01
-2.312985956668853760e-01,4.774990677833557129e-02
1.720267534255981445e-02,3.828990757465362549e-01
1.599830090999603271e-01,1.812937855720520020e-01
-2.018217891454696655e-01,-1.033431664109230042e-01
3.492025434970855713e-01,6.803125143051147461e-02
-2.402571737766265869e-01,2.705236971378326416e-01
-3.804185241460800171e-02,-1.494756527245044708e-02
1.657359451055526733e-01,5.140624642372131348e-01
4.151290357112884521e-01,1.096515432000160217e-01
2.375620901584625244e-01,-1.125852316617965698e-01
7.482051849365234375e-03,-1.051683425903320312e-01
3.457575738430023193e-01,2.683769166469573975e-01
-2.385628223419189453e-01,-3.421843647956848145e-01
1.590061038732528687e-01,-3.783391118049621582e-01
1.920309960842132568e-01,-2.769815623760223389e-01
-2.683058977127075195e-01,-1.976326555013656616e-01
-2.096350118517875671e-02,4.208731651306152344e-01
1.387798935174942017e-01,-3.307847976684570312e-01
-1.275184005498886108e-01,5.201663374900817871e-01
2.594091594219207764e-01,-2.314350455999374390e-01
4.474114477634429932e-01,-1.842557638883590698e-01
-6.455683708190917969e-02,8.143272995948791504e-02
1.326086372137069702e-01,-2.645960748195648193e-01
-9.778983891010284424e-02,5.351840257644653320e-01
4.521103799343109131e-01,2.431186735630035400e-01
2.031733840703964233e-01,5.499817132949829102e-01
6.412608176469802856e-02
1.149025559425354004e-01
